digraph Tree {
node [shape=box] ;
0 [label="X[2809] <= 0.066\ngini = 0.885\nsamples = 360\nvalue = [56, 74, 45, 72, 59, 63, 50, 68, 84]"] ;
1 [label="X[873] <= 0.004\ngini = 0.819\nsamples = 217\nvalue = [53, 71, 0, 2, 0, 32, 40, 68, 84]"] ;
0 -> 1 [labeldistance=2.5, labelangle=45, headlabel="True"] ;
2 [label="X[1519] <= 0.0\ngini = 0.493\nsamples = 61\nvalue = [0, 58, 0, 0, 0, 0, 40, 1, 0]"] ;
1 -> 2 ;
3 [label="gini = 0.0\nsamples = 26\nvalue = [0, 0, 0, 0, 0, 0, 40, 0, 0]"] ;
2 -> 3 ;
4 [label="X[2729] <= 0.005\ngini = 0.033\nsamples = 35\nvalue = [0, 58, 0, 0, 0, 0, 0, 1, 0]"] ;
2 -> 4 ;
5 [label="gini = 0.0\nsamples = 32\nvalue = [0, 55, 0, 0, 0, 0, 0, 0, 0]"] ;
4 -> 5 ;
6 [label="X[1584] <= 0.008\ngini = 0.375\nsamples = 3\nvalue = [0, 3, 0, 0, 0, 0, 0, 1, 0]"] ;
4 -> 6 ;
7 [label="gini = 0.0\nsamples = 1\nvalue = [0, 0, 0, 0, 0, 0, 0, 1, 0]"] ;
6 -> 7 ;
8 [label="gini = 0.0\nsamples = 2\nvalue = [0, 3, 0, 0, 0, 0, 0, 0, 0]"] ;
6 -> 8 ;
9 [label="X[1041] <= 0.064\ngini = 0.753\nsamples = 156\nvalue = [53, 13, 0, 2, 0, 32, 0, 67, 84]"] ;
1 -> 9 ;
10 [label="X[3494] <= 0.027\ngini = 0.407\nsamples = 65\nvalue = [6, 1, 0, 0, 0, 11, 0, 7, 78]"] ;
9 -> 10 ;
11 [label="X[1497] <= 0.034\ngini = 0.262\nsamples = 57\nvalue = [4, 1, 0, 0, 0, 1, 0, 7, 76]"] ;
10 -> 11 ;
12 [label="X[1472] <= 0.192\ngini = 0.16\nsamples = 52\nvalue = [0, 0, 0, 0, 0, 1, 0, 6, 74]"] ;
11 -> 12 ;
13 [label="X[1014] <= 0.004\ngini = 0.054\nsamples = 45\nvalue = [0, 0, 0, 0, 0, 1, 0, 1, 70]"] ;
12 -> 13 ;
14 [label="gini = 0.0\nsamples = 1\nvalue = [0, 0, 0, 0, 0, 0, 0, 1, 0]"] ;
13 -> 14 ;
15 [label="X[4038] <= 0.068\ngini = 0.028\nsamples = 44\nvalue = [0, 0, 0, 0, 0, 1, 0, 0, 70]"] ;
13 -> 15 ;
16 [label="gini = 0.0\nsamples = 43\nvalue = [0, 0, 0, 0, 0, 0, 0, 0, 70]"] ;
15 -> 16 ;
17 [label="gini = 0.0\nsamples = 1\nvalue = [0, 0, 0, 0, 0, 1, 0, 0, 0]"] ;
15 -> 17 ;
18 [label="X[904] <= 0.022\ngini = 0.494\nsamples = 7\nvalue = [0, 0, 0, 0, 0, 0, 0, 5, 4]"] ;
12 -> 18 ;
19 [label="gini = 0.0\nsamples = 3\nvalue = [0, 0, 0, 0, 0, 0, 0, 5, 0]"] ;
18 -> 19 ;
20 [label="gini = 0.0\nsamples = 4\nvalue = [0, 0, 0, 0, 0, 0, 0, 0, 4]"] ;
18 -> 20 ;
21 [label="X[2986] <= 0.019\ngini = 0.656\nsamples = 5\nvalue = [4, 1, 0, 0, 0, 0, 0, 1, 2]"] ;
11 -> 21 ;
22 [label="X[1363] <= 0.117\ngini = 0.625\nsamples = 3\nvalue = [0, 1, 0, 0, 0, 0, 0, 1, 2]"] ;
21 -> 22 ;
23 [label="X[3258] <= 0.004\ngini = 0.5\nsamples = 2\nvalue = [0, 1, 0, 0, 0, 0, 0, 1, 0]"] ;
22 -> 23 ;
24 [label="gini = 0.0\nsamples = 1\nvalue = [0, 0, 0, 0, 0, 0, 0, 1, 0]"] ;
23 -> 24 ;
25 [label="gini = 0.0\nsamples = 1\nvalue = [0, 1, 0, 0, 0, 0, 0, 0, 0]"] ;
23 -> 25 ;
26 [label="gini = 0.0\nsamples = 1\nvalue = [0, 0, 0, 0, 0, 0, 0, 0, 2]"] ;
22 -> 26 ;
27 [label="gini = 0.0\nsamples = 2\nvalue = [4, 0, 0, 0, 0, 0, 0, 0, 0]"] ;
21 -> 27 ;
28 [label="X[1403] <= 0.032\ngini = 0.449\nsamples = 8\nvalue = [2, 0, 0, 0, 0, 10, 0, 0, 2]"] ;
10 -> 28 ;
29 [label="gini = 0.0\nsamples = 4\nvalue = [0, 0, 0, 0, 0, 10, 0, 0, 0]"] ;
28 -> 29 ;
30 [label="X[1764] <= 0.035\ngini = 0.5\nsamples = 4\nvalue = [2, 0, 0, 0, 0, 0, 0, 0, 2]"] ;
28 -> 30 ;
31 [label="gini = 0.0\nsamples = 2\nvalue = [0, 0, 0, 0, 0, 0, 0, 0, 2]"] ;
30 -> 31 ;
32 [label="gini = 0.0\nsamples = 2\nvalue = [2, 0, 0, 0, 0, 0, 0, 0, 0]"] ;
30 -> 32 ;
33 [label="X[709] <= 0.078\ngini = 0.706\nsamples = 91\nvalue = [47, 12, 0, 2, 0, 21, 0, 60, 6]"] ;
9 -> 33 ;
34 [label="X[2396] <= 0.076\ngini = 0.661\nsamples = 55\nvalue = [46, 12, 0, 2, 0, 21, 0, 5, 4]"] ;
33 -> 34 ;
35 [label="X[941] <= 0.015\ngini = 0.518\nsamples = 39\nvalue = [44, 11, 0, 0, 0, 3, 0, 5, 3]"] ;
34 -> 35 ;
36 [label="X[1764] <= 0.015\ngini = 0.357\nsamples = 8\nvalue = [0, 11, 0, 0, 0, 0, 0, 2, 1]"] ;
35 -> 36 ;
37 [label="gini = 0.0\nsamples = 6\nvalue = [0, 11, 0, 0, 0, 0, 0, 0, 0]"] ;
36 -> 37 ;
38 [label="X[1455] <= 0.013\ngini = 0.444\nsamples = 2\nvalue = [0, 0, 0, 0, 0, 0, 0, 2, 1]"] ;
36 -> 38 ;
39 [label="gini = 0.0\nsamples = 1\nvalue = [0, 0, 0, 0, 0, 0, 0, 2, 0]"] ;
38 -> 39 ;
40 [label="gini = 0.0\nsamples = 1\nvalue = [0, 0, 0, 0, 0, 0, 0, 0, 1]"] ;
38 -> 40 ;
41 [label="X[2226] <= 0.067\ngini = 0.276\nsamples = 31\nvalue = [44, 0, 0, 0, 0, 3, 0, 3, 2]"] ;
35 -> 41 ;
42 [label="X[382] <= 0.082\ngini = 0.155\nsamples = 29\nvalue = [44, 0, 0, 0, 0, 3, 0, 0, 1]"] ;
41 -> 42 ;
43 [label="X[2896] <= 0.062\ngini = 0.043\nsamples = 28\nvalue = [44, 0, 0, 0, 0, 0, 0, 0, 1]"] ;
42 -> 43 ;
44 [label="gini = 0.0\nsamples = 27\nvalue = [44, 0, 0, 0, 0, 0, 0, 0, 0]"] ;
43 -> 44 ;
45 [label="gini = 0.0\nsamples = 1\nvalue = [0, 0, 0, 0, 0, 0, 0, 0, 1]"] ;
43 -> 45 ;
46 [label="gini = 0.0\nsamples = 1\nvalue = [0, 0, 0, 0, 0, 3, 0, 0, 0]"] ;
42 -> 46 ;
47 [label="X[721] <= 0.038\ngini = 0.375\nsamples = 2\nvalue = [0, 0, 0, 0, 0, 0, 0, 3, 1]"] ;
41 -> 47 ;
48 [label="gini = 0.0\nsamples = 1\nvalue = [0, 0, 0, 0, 0, 0, 0, 0, 1]"] ;
47 -> 48 ;
49 [label="gini = 0.0\nsamples = 1\nvalue = [0, 0, 0, 0, 0, 0, 0, 3, 0]"] ;
47 -> 49 ;
50 [label="X[3084] <= 0.079\ngini = 0.42\nsamples = 16\nvalue = [2, 1, 0, 2, 0, 18, 0, 0, 1]"] ;
34 -> 50 ;
51 [label="gini = 0.0\nsamples = 10\nvalue = [0, 0, 0, 0, 0, 17, 0, 0, 0]"] ;
50 -> 51 ;
52 [label="X[1175] <= 0.047\ngini = 0.776\nsamples = 6\nvalue = [2, 1, 0, 2, 0, 1, 0, 0, 1]"] ;
50 -> 52 ;
53 [label="gini = 0.0\nsamples = 2\nvalue = [2, 0, 0, 0, 0, 0, 0, 0, 0]"] ;
52 -> 53 ;
54 [label="X[2210] <= 0.001\ngini = 0.72\nsamples = 4\nvalue = [0, 1, 0, 2, 0, 1, 0, 0, 1]"] ;
52 -> 54 ;
55 [label="X[2447] <= 0.036\ngini = 0.667\nsamples = 3\nvalue = [0, 1, 0, 0, 0, 1, 0, 0, 1]"] ;
54 -> 55 ;
56 [label="gini = 0.0\nsamples = 1\nvalue = [0, 1, 0, 0, 0, 0, 0, 0, 0]"] ;
55 -> 56 ;
57 [label="X[3385] <= 0.068\ngini = 0.5\nsamples = 2\nvalue = [0, 0, 0, 0, 0, 1, 0, 0, 1]"] ;
55 -> 57 ;
58 [label="gini = 0.0\nsamples = 1\nvalue = [0, 0, 0, 0, 0, 1, 0, 0, 0]"] ;
57 -> 58 ;
59 [label="gini = 0.0\nsamples = 1\nvalue = [0, 0, 0, 0, 0, 0, 0, 0, 1]"] ;
57 -> 59 ;
60 [label="gini = 0.0\nsamples = 1\nvalue = [0, 0, 0, 2, 0, 0, 0, 0, 0]"] ;
54 -> 60 ;
61 [label="X[4030] <= 0.0\ngini = 0.099\nsamples = 36\nvalue = [1, 0, 0, 0, 0, 0, 0, 55, 2]"] ;
33 -> 61 ;
62 [label="X[810] <= 0.024\ngini = 0.444\nsamples = 3\nvalue = [1, 0, 0, 0, 0, 0, 0, 0, 2]"] ;
61 -> 62 ;
63 [label="gini = 0.0\nsamples = 1\nvalue = [1, 0, 0, 0, 0, 0, 0, 0, 0]"] ;
62 -> 63 ;
64 [label="gini = 0.0\nsamples = 2\nvalue = [0, 0, 0, 0, 0, 0, 0, 0, 2]"] ;
62 -> 64 ;
65 [label="gini = 0.0\nsamples = 33\nvalue = [0, 0, 0, 0, 0, 0, 0, 55, 0]"] ;
61 -> 65 ;
66 [label="X[4030] <= 0.001\ngini = 0.765\nsamples = 143\nvalue = [3, 3, 45, 70, 59, 31, 10, 0, 0]"] ;
0 -> 66 [labeldistance=2.5, labelangle=-45, headlabel="False"] ;
67 [label="X[1854] <= 0.114\ngini = 0.669\nsamples = 71\nvalue = [3, 3, 45, 0, 40, 19, 0, 0, 0]"] ;
66 -> 67 ;
68 [label="X[2024] <= 0.056\ngini = 0.091\nsamples = 29\nvalue = [0, 2, 0, 0, 40, 0, 0, 0, 0]"] ;
67 -> 68 ;
69 [label="gini = 0.0\nsamples = 1\nvalue = [0, 2, 0, 0, 0, 0, 0, 0, 0]"] ;
68 -> 69 ;
70 [label="gini = 0.0\nsamples = 28\nvalue = [0, 0, 0, 0, 40, 0, 0, 0, 0]"] ;
68 -> 70 ;
71 [label="X[2943] <= 0.266\ngini = 0.482\nsamples = 42\nvalue = [3, 1, 45, 0, 0, 19, 0, 0, 0]"] ;
67 -> 71 ;
72 [label="X[3784] <= 0.087\ngini = 0.349\nsamples = 12\nvalue = [3, 1, 0, 0, 0, 15, 0, 0, 0]"] ;
71 -> 72 ;
73 [label="X[35] <= 0.112\ngini = 0.375\nsamples = 2\nvalue = [3, 1, 0, 0, 0, 0, 0, 0, 0]"] ;
72 -> 73 ;
74 [label="gini = 0.0\nsamples = 1\nvalue = [0, 1, 0, 0, 0, 0, 0, 0, 0]"] ;
73 -> 74 ;
75 [label="gini = 0.0\nsamples = 1\nvalue = [3, 0, 0, 0, 0, 0, 0, 0, 0]"] ;
73 -> 75 ;
76 [label="gini = 0.0\nsamples = 10\nvalue = [0, 0, 0, 0, 0, 15, 0, 0, 0]"] ;
72 -> 76 ;
77 [label="X[16] <= 0.751\ngini = 0.15\nsamples = 30\nvalue = [0, 0, 45, 0, 0, 4, 0, 0, 0]"] ;
71 -> 77 ;
78 [label="gini = 0.0\nsamples = 27\nvalue = [0, 0, 44, 0, 0, 0, 0, 0, 0]"] ;
77 -> 78 ;
79 [label="X[3027] <= 0.337\ngini = 0.32\nsamples = 3\nvalue = [0, 0, 1, 0, 0, 4, 0, 0, 0]"] ;
77 -> 79 ;
80 [label="gini = 0.0\nsamples = 1\nvalue = [0, 0, 1, 0, 0, 0, 0, 0, 0]"] ;
79 -> 80 ;
81 [label="gini = 0.0\nsamples = 2\nvalue = [0, 0, 0, 0, 0, 4, 0, 0, 0]"] ;
79 -> 81 ;
82 [label="X[2482] <= 0.315\ngini = 0.553\nsamples = 72\nvalue = [0, 0, 0, 70, 19, 12, 10, 0, 0]"] ;
66 -> 82 ;
83 [label="X[1755] <= 0.001\ngini = 0.131\nsamples = 34\nvalue = [0, 0, 0, 53, 0, 4, 0, 0, 0]"] ;
82 -> 83 ;
84 [label="gini = 0.0\nsamples = 1\nvalue = [0, 0, 0, 0, 0, 2, 0, 0, 0]"] ;
83 -> 84 ;
85 [label="X[1241] <= 0.403\ngini = 0.07\nsamples = 33\nvalue = [0, 0, 0, 53, 0, 2, 0, 0, 0]"] ;
83 -> 85 ;
86 [label="gini = 0.0\nsamples = 32\nvalue = [0, 0, 0, 53, 0, 0, 0, 0, 0]"] ;
85 -> 86 ;
87 [label="gini = 0.0\nsamples = 1\nvalue = [0, 0, 0, 0, 0, 2, 0, 0, 0]"] ;
85 -> 87 ;
88 [label="X[1292] <= 0.348\ngini = 0.721\nsamples = 38\nvalue = [0, 0, 0, 17, 19, 8, 10, 0, 0]"] ;
82 -> 88 ;
89 [label="gini = 0.0\nsamples = 15\nvalue = [0, 0, 0, 0, 19, 0, 0, 0, 0]"] ;
88 -> 89 ;
90 [label="X[497] <= 0.711\ngini = 0.63\nsamples = 23\nvalue = [0, 0, 0, 17, 0, 8, 10, 0, 0]"] ;
88 -> 90 ;
91 [label="X[89] <= 0.478\ngini = 0.435\nsamples = 15\nvalue = [0, 0, 0, 17, 0, 8, 0, 0, 0]"] ;
90 -> 91 ;
92 [label="gini = 0.0\nsamples = 5\nvalue = [0, 0, 0, 0, 0, 8, 0, 0, 0]"] ;
91 -> 92 ;
93 [label="gini = 0.0\nsamples = 10\nvalue = [0, 0, 0, 17, 0, 0, 0, 0, 0]"] ;
91 -> 93 ;
94 [label="gini = 0.0\nsamples = 8\nvalue = [0, 0, 0, 0, 0, 0, 10, 0, 0]"] ;
90 -> 94 ;
}
