digraph Tree {
node [shape=box] ;
0 [label="X[459] <= 0.071\ngini = 0.884\nsamples = 209\nvalue = [36, 38, 23, 43, 45, 44, 31, 33, 49]"] ;
1 [label="X[3047] <= 0.001\ngini = 0.819\nsamples = 121\nvalue = [35, 37, 0, 0, 0, 17, 28, 32, 49]"] ;
0 -> 1 [labeldistance=2.5, labelangle=45, headlabel="True"] ;
2 [label="gini = 0.0\nsamples = 16\nvalue = [0, 0, 0, 0, 0, 0, 28, 0, 0]"] ;
1 -> 2 ;
3 [label="X[381] <= 0.095\ngini = 0.782\nsamples = 105\nvalue = [35, 37, 0, 0, 0, 17, 0, 32, 49]"] ;
1 -> 3 ;
4 [label="X[2704] <= 0.009\ngini = 0.74\nsamples = 86\nvalue = [34, 36, 0, 0, 0, 17, 0, 5, 49]"] ;
3 -> 4 ;
5 [label="X[2478] <= 0.009\ngini = 0.117\nsamples = 18\nvalue = [0, 30, 0, 0, 0, 0, 0, 2, 0]"] ;
4 -> 5 ;
6 [label="X[2639] <= 0.001\ngini = 0.062\nsamples = 17\nvalue = [0, 30, 0, 0, 0, 0, 0, 1, 0]"] ;
5 -> 6 ;
7 [label="gini = 0.0\nsamples = 1\nvalue = [0, 0, 0, 0, 0, 0, 0, 1, 0]"] ;
6 -> 7 ;
8 [label="gini = 0.0\nsamples = 16\nvalue = [0, 30, 0, 0, 0, 0, 0, 0, 0]"] ;
6 -> 8 ;
9 [label="gini = 0.0\nsamples = 1\nvalue = [0, 0, 0, 0, 0, 0, 0, 1, 0]"] ;
5 -> 9 ;
10 [label="X[549] <= 0.036\ngini = 0.673\nsamples = 68\nvalue = [34, 6, 0, 0, 0, 17, 0, 3, 49]"] ;
4 -> 10 ;
11 [label="X[3458] <= 0.009\ngini = 0.153\nsamples = 33\nvalue = [0, 0, 0, 0, 0, 2, 0, 2, 45]"] ;
10 -> 11 ;
12 [label="gini = 0.0\nsamples = 1\nvalue = [0, 0, 0, 0, 0, 0, 0, 2, 0]"] ;
11 -> 12 ;
13 [label="X[3811] <= 0.039\ngini = 0.081\nsamples = 32\nvalue = [0, 0, 0, 0, 0, 2, 0, 0, 45]"] ;
11 -> 13 ;
14 [label="X[2864] <= 0.076\ngini = 0.043\nsamples = 31\nvalue = [0, 0, 0, 0, 0, 1, 0, 0, 45]"] ;
13 -> 14 ;
15 [label="gini = 0.0\nsamples = 30\nvalue = [0, 0, 0, 0, 0, 0, 0, 0, 45]"] ;
14 -> 15 ;
16 [label="gini = 0.0\nsamples = 1\nvalue = [0, 0, 0, 0, 0, 1, 0, 0, 0]"] ;
14 -> 16 ;
17 [label="gini = 0.0\nsamples = 1\nvalue = [0, 0, 0, 0, 0, 1, 0, 0, 0]"] ;
13 -> 17 ;
18 [label="X[2844] <= 0.05\ngini = 0.602\nsamples = 35\nvalue = [34, 6, 0, 0, 0, 15, 0, 1, 4]"] ;
10 -> 18 ;
19 [label="X[3611] <= 0.011\ngini = 0.358\nsamples = 26\nvalue = [34, 1, 0, 0, 0, 5, 0, 1, 2]"] ;
18 -> 19 ;
20 [label="X[1575] <= 0.007\ngini = 0.449\nsamples = 4\nvalue = [0, 1, 0, 0, 0, 5, 0, 1, 0]"] ;
19 -> 20 ;
21 [label="X[583] <= 0.008\ngini = 0.5\nsamples = 2\nvalue = [0, 1, 0, 0, 0, 0, 0, 1, 0]"] ;
20 -> 21 ;
22 [label="gini = 0.0\nsamples = 1\nvalue = [0, 1, 0, 0, 0, 0, 0, 0, 0]"] ;
21 -> 22 ;
23 [label="gini = 0.0\nsamples = 1\nvalue = [0, 0, 0, 0, 0, 0, 0, 1, 0]"] ;
21 -> 23 ;
24 [label="gini = 0.0\nsamples = 2\nvalue = [0, 0, 0, 0, 0, 5, 0, 0, 0]"] ;
20 -> 24 ;
25 [label="X[3839] <= 0.055\ngini = 0.105\nsamples = 22\nvalue = [34, 0, 0, 0, 0, 0, 0, 0, 2]"] ;
19 -> 25 ;
26 [label="X[723] <= 0.051\ngini = 0.444\nsamples = 2\nvalue = [1, 0, 0, 0, 0, 0, 0, 0, 2]"] ;
25 -> 26 ;
27 [label="gini = 0.0\nsamples = 1\nvalue = [1, 0, 0, 0, 0, 0, 0, 0, 0]"] ;
26 -> 27 ;
28 [label="gini = 0.0\nsamples = 1\nvalue = [0, 0, 0, 0, 0, 0, 0, 0, 2]"] ;
26 -> 28 ;
29 [label="gini = 0.0\nsamples = 20\nvalue = [33, 0, 0, 0, 0, 0, 0, 0, 0]"] ;
25 -> 29 ;
30 [label="X[2158] <= 0.036\ngini = 0.554\nsamples = 9\nvalue = [0, 5, 0, 0, 0, 10, 0, 0, 2]"] ;
18 -> 30 ;
31 [label="gini = 0.0\nsamples = 2\nvalue = [0, 5, 0, 0, 0, 0, 0, 0, 0]"] ;
30 -> 31 ;
32 [label="X[3675] <= 0.057\ngini = 0.278\nsamples = 7\nvalue = [0, 0, 0, 0, 0, 10, 0, 0, 2]"] ;
30 -> 32 ;
33 [label="gini = 0.0\nsamples = 2\nvalue = [0, 0, 0, 0, 0, 0, 0, 0, 2]"] ;
32 -> 33 ;
34 [label="gini = 0.0\nsamples = 5\nvalue = [0, 0, 0, 0, 0, 10, 0, 0, 0]"] ;
32 -> 34 ;
35 [label="X[3229] <= 0.039\ngini = 0.131\nsamples = 19\nvalue = [1, 1, 0, 0, 0, 0, 0, 27, 0]"] ;
3 -> 35 ;
36 [label="X[4041] <= 0.06\ngini = 0.5\nsamples = 2\nvalue = [1, 1, 0, 0, 0, 0, 0, 0, 0]"] ;
35 -> 36 ;
37 [label="gini = 0.0\nsamples = 1\nvalue = [0, 1, 0, 0, 0, 0, 0, 0, 0]"] ;
36 -> 37 ;
38 [label="gini = 0.0\nsamples = 1\nvalue = [1, 0, 0, 0, 0, 0, 0, 0, 0]"] ;
36 -> 38 ;
39 [label="gini = 0.0\nsamples = 17\nvalue = [0, 0, 0, 0, 0, 0, 0, 27, 0]"] ;
35 -> 39 ;
40 [label="X[907] <= 0.108\ngini = 0.752\nsamples = 88\nvalue = [1, 1, 23, 43, 45, 27, 3, 1, 0]"] ;
0 -> 40 [labeldistance=2.5, labelangle=-45, headlabel="False"] ;
41 [label="X[351] <= 0.09\ngini = 0.458\nsamples = 26\nvalue = [1, 0, 0, 3, 34, 9, 0, 1, 0]"] ;
40 -> 41 ;
42 [label="X[1721] <= 0.075\ngini = 0.531\nsamples = 7\nvalue = [1, 0, 0, 3, 0, 9, 0, 1, 0]"] ;
41 -> 42 ;
43 [label="gini = 0.0\nsamples = 3\nvalue = [0, 0, 0, 0, 0, 9, 0, 0, 0]"] ;
42 -> 43 ;
44 [label="X[1041] <= 0.136\ngini = 0.56\nsamples = 4\nvalue = [1, 0, 0, 3, 0, 0, 0, 1, 0]"] ;
42 -> 44 ;
45 [label="gini = 0.0\nsamples = 2\nvalue = [0, 0, 0, 3, 0, 0, 0, 0, 0]"] ;
44 -> 45 ;
46 [label="X[654] <= 0.071\ngini = 0.5\nsamples = 2\nvalue = [1, 0, 0, 0, 0, 0, 0, 1, 0]"] ;
44 -> 46 ;
47 [label="gini = 0.0\nsamples = 1\nvalue = [0, 0, 0, 0, 0, 0, 0, 1, 0]"] ;
46 -> 47 ;
48 [label="gini = 0.0\nsamples = 1\nvalue = [1, 0, 0, 0, 0, 0, 0, 0, 0]"] ;
46 -> 48 ;
49 [label="gini = 0.0\nsamples = 19\nvalue = [0, 0, 0, 0, 34, 0, 0, 0, 0]"] ;
41 -> 49 ;
50 [label="X[2990] <= 0.001\ngini = 0.72\nsamples = 62\nvalue = [0, 1, 23, 40, 11, 18, 3, 0, 0]"] ;
40 -> 50 ;
51 [label="X[3499] <= 0.24\ngini = 0.621\nsamples = 32\nvalue = [0, 1, 23, 3, 0, 17, 3, 0, 0]"] ;
50 -> 51 ;
52 [label="X[3381] <= 0.094\ngini = 0.117\nsamples = 9\nvalue = [0, 0, 0, 1, 0, 15, 0, 0, 0]"] ;
51 -> 52 ;
53 [label="gini = 0.0\nsamples = 1\nvalue = [0, 0, 0, 1, 0, 0, 0, 0, 0]"] ;
52 -> 53 ;
54 [label="gini = 0.0\nsamples = 8\nvalue = [0, 0, 0, 0, 0, 15, 0, 0, 0]"] ;
52 -> 54 ;
55 [label="X[585] <= 0.001\ngini = 0.431\nsamples = 23\nvalue = [0, 1, 23, 2, 0, 2, 3, 0, 0]"] ;
51 -> 55 ;
56 [label="X[1999] <= 0.187\ngini = 0.15\nsamples = 17\nvalue = [0, 1, 23, 0, 0, 1, 0, 0, 0]"] ;
55 -> 56 ;
57 [label="gini = 0.0\nsamples = 1\nvalue = [0, 1, 0, 0, 0, 0, 0, 0, 0]"] ;
56 -> 57 ;
58 [label="X[759] <= 0.339\ngini = 0.08\nsamples = 16\nvalue = [0, 0, 23, 0, 0, 1, 0, 0, 0]"] ;
56 -> 58 ;
59 [label="X[2373] <= 0.329\ngini = 0.32\nsamples = 5\nvalue = [0, 0, 4, 0, 0, 1, 0, 0, 0]"] ;
58 -> 59 ;
60 [label="gini = 0.0\nsamples = 4\nvalue = [0, 0, 4, 0, 0, 0, 0, 0, 0]"] ;
59 -> 60 ;
61 [label="gini = 0.0\nsamples = 1\nvalue = [0, 0, 0, 0, 0, 1, 0, 0, 0]"] ;
59 -> 61 ;
62 [label="gini = 0.0\nsamples = 11\nvalue = [0, 0, 19, 0, 0, 0, 0, 0, 0]"] ;
58 -> 62 ;
63 [label="X[2484] <= 0.542\ngini = 0.611\nsamples = 6\nvalue = [0, 0, 0, 2, 0, 1, 3, 0, 0]"] ;
55 -> 63 ;
64 [label="X[2482] <= 0.315\ngini = 0.444\nsamples = 3\nvalue = [0, 0, 0, 2, 0, 1, 0, 0, 0]"] ;
63 -> 64 ;
65 [label="gini = 0.0\nsamples = 2\nvalue = [0, 0, 0, 2, 0, 0, 0, 0, 0]"] ;
64 -> 65 ;
66 [label="gini = 0.0\nsamples = 1\nvalue = [0, 0, 0, 0, 0, 1, 0, 0, 0]"] ;
64 -> 66 ;
67 [label="gini = 0.0\nsamples = 3\nvalue = [0, 0, 0, 0, 0, 0, 3, 0, 0]"] ;
63 -> 67 ;
68 [label="X[3557] <= 0.314\ngini = 0.379\nsamples = 30\nvalue = [0, 0, 0, 37, 11, 1, 0, 0, 0]"] ;
50 -> 68 ;
69 [label="gini = 0.0\nsamples = 15\nvalue = [0, 0, 0, 28, 0, 0, 0, 0, 0]"] ;
68 -> 69 ;
70 [label="X[546] <= 0.323\ngini = 0.54\nsamples = 15\nvalue = [0, 0, 0, 9, 11, 1, 0, 0, 0]"] ;
68 -> 70 ;
71 [label="gini = 0.0\nsamples = 7\nvalue = [0, 0, 0, 0, 11, 0, 0, 0, 0]"] ;
70 -> 71 ;
72 [label="X[2140] <= 0.383\ngini = 0.18\nsamples = 8\nvalue = [0, 0, 0, 9, 0, 1, 0, 0, 0]"] ;
70 -> 72 ;
73 [label="gini = 0.0\nsamples = 1\nvalue = [0, 0, 0, 0, 0, 1, 0, 0, 0]"] ;
72 -> 73 ;
74 [label="gini = 0.0\nsamples = 7\nvalue = [0, 0, 0, 9, 0, 0, 0, 0, 0]"] ;
72 -> 74 ;
}
