digraph Tree {
node [shape=box] ;
0 [label="X[2950] <= 0.071\ngini = 0.887\nsamples = 221\nvalue = [39, 36, 40, 31, 44, 42, 31, 34, 45]"] ;
1 [label="X[3167] <= 0.001\ngini = 0.814\nsamples = 121\nvalue = [39, 35, 0, 0, 0, 12, 24, 32, 45]"] ;
0 -> 1 [labeldistance=2.5, labelangle=45, headlabel="True"] ;
2 [label="gini = 0.0\nsamples = 16\nvalue = [0, 0, 0, 0, 0, 0, 24, 0, 0]"] ;
1 -> 2 ;
3 [label="X[2496] <= 0.106\ngini = 0.776\nsamples = 105\nvalue = [39, 35, 0, 0, 0, 12, 0, 32, 45]"] ;
1 -> 3 ;
4 [label="X[3822] <= 0.007\ngini = 0.7\nsamples = 63\nvalue = [36, 35, 0, 0, 0, 5, 0, 21, 3]"] ;
3 -> 4 ;
5 [label="X[3135] <= 0.031\ngini = 0.056\nsamples = 24\nvalue = [1, 34, 0, 0, 0, 0, 0, 0, 0]"] ;
4 -> 5 ;
6 [label="X[2991] <= 0.002\ngini = 0.375\nsamples = 4\nvalue = [1, 3, 0, 0, 0, 0, 0, 0, 0]"] ;
5 -> 6 ;
7 [label="gini = 0.0\nsamples = 3\nvalue = [0, 3, 0, 0, 0, 0, 0, 0, 0]"] ;
6 -> 7 ;
8 [label="gini = 0.0\nsamples = 1\nvalue = [1, 0, 0, 0, 0, 0, 0, 0, 0]"] ;
6 -> 8 ;
9 [label="gini = 0.0\nsamples = 20\nvalue = [0, 31, 0, 0, 0, 0, 0, 0, 0]"] ;
5 -> 9 ;
10 [label="X[2944] <= 0.081\ngini = 0.597\nsamples = 39\nvalue = [35, 1, 0, 0, 0, 5, 0, 21, 3]"] ;
4 -> 10 ;
11 [label="X[89] <= 0.098\ngini = 0.411\nsamples = 19\nvalue = [0, 1, 0, 0, 0, 4, 0, 21, 2]"] ;
10 -> 11 ;
12 [label="X[3814] <= 0.004\ngini = 0.087\nsamples = 15\nvalue = [0, 0, 0, 0, 0, 1, 0, 21, 0]"] ;
11 -> 12 ;
13 [label="gini = 0.0\nsamples = 1\nvalue = [0, 0, 0, 0, 0, 1, 0, 0, 0]"] ;
12 -> 13 ;
14 [label="gini = 0.0\nsamples = 14\nvalue = [0, 0, 0, 0, 0, 0, 0, 21, 0]"] ;
12 -> 14 ;
15 [label="X[1657] <= 0.017\ngini = 0.611\nsamples = 4\nvalue = [0, 1, 0, 0, 0, 3, 0, 0, 2]"] ;
11 -> 15 ;
16 [label="gini = 0.0\nsamples = 2\nvalue = [0, 0, 0, 0, 0, 3, 0, 0, 0]"] ;
15 -> 16 ;
17 [label="X[1936] <= 0.193\ngini = 0.444\nsamples = 2\nvalue = [0, 1, 0, 0, 0, 0, 0, 0, 2]"] ;
15 -> 17 ;
18 [label="gini = 0.0\nsamples = 1\nvalue = [0, 0, 0, 0, 0, 0, 0, 0, 2]"] ;
17 -> 18 ;
19 [label="gini = 0.0\nsamples = 1\nvalue = [0, 1, 0, 0, 0, 0, 0, 0, 0]"] ;
17 -> 19 ;
20 [label="X[2056] <= 0.054\ngini = 0.104\nsamples = 20\nvalue = [35, 0, 0, 0, 0, 1, 0, 0, 1]"] ;
10 -> 20 ;
21 [label="X[27] <= 0.176\ngini = 0.5\nsamples = 2\nvalue = [0, 0, 0, 0, 0, 1, 0, 0, 1]"] ;
20 -> 21 ;
22 [label="gini = 0.0\nsamples = 1\nvalue = [0, 0, 0, 0, 0, 0, 0, 0, 1]"] ;
21 -> 22 ;
23 [label="gini = 0.0\nsamples = 1\nvalue = [0, 0, 0, 0, 0, 1, 0, 0, 0]"] ;
21 -> 23 ;
24 [label="gini = 0.0\nsamples = 18\nvalue = [35, 0, 0, 0, 0, 0, 0, 0, 0]"] ;
20 -> 24 ;
25 [label="X[1154] <= 0.05\ngini = 0.51\nsamples = 42\nvalue = [3, 0, 0, 0, 0, 7, 0, 11, 42]"] ;
3 -> 25 ;
26 [label="X[3519] <= 0.086\ngini = 0.328\nsamples = 35\nvalue = [0, 0, 0, 0, 0, 6, 0, 4, 42]"] ;
25 -> 26 ;
27 [label="X[1968] <= 0.017\ngini = 0.172\nsamples = 28\nvalue = [0, 0, 0, 0, 0, 0, 0, 4, 38]"] ;
26 -> 27 ;
28 [label="X[4041] <= 0.009\ngini = 0.444\nsamples = 4\nvalue = [0, 0, 0, 0, 0, 0, 0, 4, 2]"] ;
27 -> 28 ;
29 [label="gini = 0.0\nsamples = 2\nvalue = [0, 0, 0, 0, 0, 0, 0, 0, 2]"] ;
28 -> 29 ;
30 [label="gini = 0.0\nsamples = 2\nvalue = [0, 0, 0, 0, 0, 0, 0, 4, 0]"] ;
28 -> 30 ;
31 [label="gini = 0.0\nsamples = 24\nvalue = [0, 0, 0, 0, 0, 0, 0, 0, 36]"] ;
27 -> 31 ;
32 [label="X[3630] <= 0.035\ngini = 0.48\nsamples = 7\nvalue = [0, 0, 0, 0, 0, 6, 0, 0, 4]"] ;
26 -> 32 ;
33 [label="gini = 0.0\nsamples = 4\nvalue = [0, 0, 0, 0, 0, 6, 0, 0, 0]"] ;
32 -> 33 ;
34 [label="gini = 0.0\nsamples = 3\nvalue = [0, 0, 0, 0, 0, 0, 0, 0, 4]"] ;
32 -> 34 ;
35 [label="X[2581] <= 0.059\ngini = 0.512\nsamples = 7\nvalue = [3, 0, 0, 0, 0, 1, 0, 7, 0]"] ;
25 -> 35 ;
36 [label="X[707] <= 0.057\ngini = 0.375\nsamples = 3\nvalue = [3, 0, 0, 0, 0, 1, 0, 0, 0]"] ;
35 -> 36 ;
37 [label="gini = 0.0\nsamples = 2\nvalue = [3, 0, 0, 0, 0, 0, 0, 0, 0]"] ;
36 -> 37 ;
38 [label="gini = 0.0\nsamples = 1\nvalue = [0, 0, 0, 0, 0, 1, 0, 0, 0]"] ;
36 -> 38 ;
39 [label="gini = 0.0\nsamples = 4\nvalue = [0, 0, 0, 0, 0, 0, 0, 7, 0]"] ;
35 -> 39 ;
40 [label="X[2270] <= 0.113\ngini = 0.773\nsamples = 100\nvalue = [0, 1, 40, 31, 44, 30, 7, 2, 0]"] ;
0 -> 40 [labeldistance=2.5, labelangle=-45, headlabel="False"] ;
41 [label="X[351] <= 0.089\ngini = 0.368\nsamples = 26\nvalue = [0, 0, 0, 0, 34, 8, 0, 2, 0]"] ;
40 -> 41 ;
42 [label="X[1118] <= 0.104\ngini = 0.32\nsamples = 7\nvalue = [0, 0, 0, 0, 0, 8, 0, 2, 0]"] ;
41 -> 42 ;
43 [label="gini = 0.0\nsamples = 6\nvalue = [0, 0, 0, 0, 0, 8, 0, 0, 0]"] ;
42 -> 43 ;
44 [label="gini = 0.0\nsamples = 1\nvalue = [0, 0, 0, 0, 0, 0, 0, 2, 0]"] ;
42 -> 44 ;
45 [label="gini = 0.0\nsamples = 19\nvalue = [0, 0, 0, 0, 34, 0, 0, 0, 0]"] ;
41 -> 45 ;
46 [label="X[3072] <= 0.897\ngini = 0.741\nsamples = 74\nvalue = [0, 1, 40, 31, 10, 22, 7, 0, 0]"] ;
40 -> 46 ;
47 [label="X[1935] <= 0.779\ngini = 0.725\nsamples = 54\nvalue = [0, 1, 6, 31, 10, 22, 7, 0, 0]"] ;
46 -> 47 ;
48 [label="X[1028] <= 0.507\ngini = 0.677\nsamples = 50\nvalue = [0, 1, 6, 31, 10, 22, 0, 0, 0]"] ;
47 -> 48 ;
49 [label="X[524] <= 0.275\ngini = 0.708\nsamples = 40\nvalue = [0, 1, 6, 19, 10, 22, 0, 0, 0]"] ;
48 -> 49 ;
50 [label="X[81] <= 0.367\ngini = 0.395\nsamples = 16\nvalue = [0, 1, 0, 15, 0, 4, 0, 0, 0]"] ;
49 -> 50 ;
51 [label="X[66] <= 0.215\ngini = 0.29\nsamples = 14\nvalue = [0, 1, 0, 15, 0, 2, 0, 0, 0]"] ;
50 -> 51 ;
52 [label="X[2869] <= 0.109\ngini = 0.444\nsamples = 3\nvalue = [0, 0, 0, 1, 0, 2, 0, 0, 0]"] ;
51 -> 52 ;
53 [label="gini = 0.0\nsamples = 1\nvalue = [0, 0, 0, 1, 0, 0, 0, 0, 0]"] ;
52 -> 53 ;
54 [label="gini = 0.0\nsamples = 2\nvalue = [0, 0, 0, 0, 0, 2, 0, 0, 0]"] ;
52 -> 54 ;
55 [label="X[2397] <= 0.476\ngini = 0.124\nsamples = 11\nvalue = [0, 1, 0, 14, 0, 0, 0, 0, 0]"] ;
51 -> 55 ;
56 [label="gini = 0.0\nsamples = 10\nvalue = [0, 0, 0, 14, 0, 0, 0, 0, 0]"] ;
55 -> 56 ;
57 [label="gini = 0.0\nsamples = 1\nvalue = [0, 1, 0, 0, 0, 0, 0, 0, 0]"] ;
55 -> 57 ;
58 [label="gini = 0.0\nsamples = 2\nvalue = [0, 0, 0, 0, 0, 2, 0, 0, 0]"] ;
50 -> 58 ;
59 [label="X[1170] <= 0.001\ngini = 0.67\nsamples = 24\nvalue = [0, 0, 6, 4, 10, 18, 0, 0, 0]"] ;
49 -> 59 ;
60 [label="X[2015] <= 0.0\ngini = 0.397\nsamples = 11\nvalue = [0, 0, 6, 0, 0, 16, 0, 0, 0]"] ;
59 -> 60 ;
61 [label="X[1791] <= 0.256\ngini = 0.496\nsamples = 5\nvalue = [0, 0, 6, 0, 0, 5, 0, 0, 0]"] ;
60 -> 61 ;
62 [label="gini = 0.0\nsamples = 3\nvalue = [0, 0, 0, 0, 0, 5, 0, 0, 0]"] ;
61 -> 62 ;
63 [label="gini = 0.0\nsamples = 2\nvalue = [0, 0, 6, 0, 0, 0, 0, 0, 0]"] ;
61 -> 63 ;
64 [label="gini = 0.0\nsamples = 6\nvalue = [0, 0, 0, 0, 0, 11, 0, 0, 0]"] ;
60 -> 64 ;
65 [label="X[2757] <= 0.315\ngini = 0.531\nsamples = 13\nvalue = [0, 0, 0, 4, 10, 2, 0, 0, 0]"] ;
59 -> 65 ;
66 [label="gini = 0.0\nsamples = 8\nvalue = [0, 0, 0, 0, 10, 0, 0, 0, 0]"] ;
65 -> 66 ;
67 [label="X[1583] <= 0.383\ngini = 0.444\nsamples = 5\nvalue = [0, 0, 0, 4, 0, 2, 0, 0, 0]"] ;
65 -> 67 ;
68 [label="gini = 0.0\nsamples = 2\nvalue = [0, 0, 0, 0, 0, 2, 0, 0, 0]"] ;
67 -> 68 ;
69 [label="gini = 0.0\nsamples = 3\nvalue = [0, 0, 0, 4, 0, 0, 0, 0, 0]"] ;
67 -> 69 ;
70 [label="gini = 0.0\nsamples = 10\nvalue = [0, 0, 0, 12, 0, 0, 0, 0, 0]"] ;
48 -> 70 ;
71 [label="gini = 0.0\nsamples = 4\nvalue = [0, 0, 0, 0, 0, 0, 7, 0, 0]"] ;
47 -> 71 ;
72 [label="gini = 0.0\nsamples = 20\nvalue = [0, 0, 34, 0, 0, 0, 0, 0, 0]"] ;
46 -> 72 ;
}
