digraph Tree {
node [shape=box] ;
0 [label="X[3012] <= 0.071\ngini = 0.883\nsamples = 216\nvalue = [33, 36, 39, 39, 42, 37, 23, 36, 57]"] ;
1 [label="X[699] <= 0.004\ngini = 0.799\nsamples = 118\nvalue = [32, 33, 0, 0, 0, 14, 16, 36, 57]"] ;
0 -> 1 [labeldistance=2.5, labelangle=45, headlabel="True"] ;
2 [label="X[3755] <= 0.0\ngini = 0.492\nsamples = 32\nvalue = [0, 31, 0, 0, 0, 1, 16, 1, 0]"] ;
1 -> 2 ;
3 [label="gini = 0.0\nsamples = 10\nvalue = [0, 0, 0, 0, 0, 0, 16, 0, 0]"] ;
2 -> 3 ;
4 [label="X[3419] <= 0.027\ngini = 0.116\nsamples = 22\nvalue = [0, 31, 0, 0, 0, 1, 0, 1, 0]"] ;
2 -> 4 ;
5 [label="gini = 0.0\nsamples = 20\nvalue = [0, 31, 0, 0, 0, 0, 0, 0, 0]"] ;
4 -> 5 ;
6 [label="X[1561] <= 0.014\ngini = 0.5\nsamples = 2\nvalue = [0, 0, 0, 0, 0, 1, 0, 1, 0]"] ;
4 -> 6 ;
7 [label="gini = 0.0\nsamples = 1\nvalue = [0, 0, 0, 0, 0, 0, 0, 1, 0]"] ;
6 -> 7 ;
8 [label="gini = 0.0\nsamples = 1\nvalue = [0, 0, 0, 0, 0, 1, 0, 0, 0]"] ;
6 -> 8 ;
9 [label="X[932] <= 0.037\ngini = 0.706\nsamples = 86\nvalue = [32, 2, 0, 0, 0, 13, 0, 35, 57]"] ;
1 -> 9 ;
10 [label="X[499] <= 0.033\ngini = 0.435\nsamples = 47\nvalue = [2, 2, 0, 0, 0, 11, 0, 5, 55]"] ;
9 -> 10 ;
11 [label="X[2431] <= 0.052\ngini = 0.278\nsamples = 38\nvalue = [1, 0, 0, 0, 0, 4, 0, 5, 54]"] ;
10 -> 11 ;
12 [label="X[1801] <= 0.036\ngini = 0.16\nsamples = 33\nvalue = [1, 0, 0, 0, 0, 0, 0, 4, 53]"] ;
11 -> 12 ;
13 [label="X[3453] <= 0.065\ngini = 0.038\nsamples = 30\nvalue = [1, 0, 0, 0, 0, 0, 0, 0, 50]"] ;
12 -> 13 ;
14 [label="gini = 0.0\nsamples = 29\nvalue = [0, 0, 0, 0, 0, 0, 0, 0, 50]"] ;
13 -> 14 ;
15 [label="gini = 0.0\nsamples = 1\nvalue = [1, 0, 0, 0, 0, 0, 0, 0, 0]"] ;
13 -> 15 ;
16 [label="X[3878] <= 0.012\ngini = 0.49\nsamples = 3\nvalue = [0, 0, 0, 0, 0, 0, 0, 4, 3]"] ;
12 -> 16 ;
17 [label="gini = 0.0\nsamples = 2\nvalue = [0, 0, 0, 0, 0, 0, 0, 4, 0]"] ;
16 -> 17 ;
18 [label="gini = 0.0\nsamples = 1\nvalue = [0, 0, 0, 0, 0, 0, 0, 0, 3]"] ;
16 -> 18 ;
19 [label="X[1718] <= 0.02\ngini = 0.5\nsamples = 5\nvalue = [0, 0, 0, 0, 0, 4, 0, 1, 1]"] ;
11 -> 19 ;
20 [label="gini = 0.0\nsamples = 3\nvalue = [0, 0, 0, 0, 0, 4, 0, 0, 0]"] ;
19 -> 20 ;
21 [label="X[1919] <= 0.088\ngini = 0.5\nsamples = 2\nvalue = [0, 0, 0, 0, 0, 0, 0, 1, 1]"] ;
19 -> 21 ;
22 [label="gini = 0.0\nsamples = 1\nvalue = [0, 0, 0, 0, 0, 0, 0, 1, 0]"] ;
21 -> 22 ;
23 [label="gini = 0.0\nsamples = 1\nvalue = [0, 0, 0, 0, 0, 0, 0, 0, 1]"] ;
21 -> 23 ;
24 [label="X[851] <= 0.039\ngini = 0.545\nsamples = 9\nvalue = [1, 2, 0, 0, 0, 7, 0, 0, 1]"] ;
10 -> 24 ;
25 [label="gini = 0.0\nsamples = 5\nvalue = [0, 0, 0, 0, 0, 7, 0, 0, 0]"] ;
24 -> 25 ;
26 [label="X[1443] <= 0.021\ngini = 0.625\nsamples = 4\nvalue = [1, 2, 0, 0, 0, 0, 0, 0, 1]"] ;
24 -> 26 ;
27 [label="gini = 0.0\nsamples = 2\nvalue = [0, 2, 0, 0, 0, 0, 0, 0, 0]"] ;
26 -> 27 ;
28 [label="X[1682] <= 0.025\ngini = 0.5\nsamples = 2\nvalue = [1, 0, 0, 0, 0, 0, 0, 0, 1]"] ;
26 -> 28 ;
29 [label="gini = 0.0\nsamples = 1\nvalue = [0, 0, 0, 0, 0, 0, 0, 0, 1]"] ;
28 -> 29 ;
30 [label="gini = 0.0\nsamples = 1\nvalue = [1, 0, 0, 0, 0, 0, 0, 0, 0]"] ;
28 -> 30 ;
31 [label="X[709] <= 0.151\ngini = 0.559\nsamples = 39\nvalue = [30, 0, 0, 0, 0, 2, 0, 30, 2]"] ;
9 -> 31 ;
32 [label="X[3686] <= 0.061\ngini = 0.258\nsamples = 21\nvalue = [30, 0, 0, 0, 0, 2, 0, 1, 2]"] ;
31 -> 32 ;
33 [label="X[3218] <= 0.01\ngini = 0.062\nsamples = 18\nvalue = [30, 0, 0, 0, 0, 0, 0, 1, 0]"] ;
32 -> 33 ;
34 [label="gini = 0.0\nsamples = 1\nvalue = [0, 0, 0, 0, 0, 0, 0, 1, 0]"] ;
33 -> 34 ;
35 [label="gini = 0.0\nsamples = 17\nvalue = [30, 0, 0, 0, 0, 0, 0, 0, 0]"] ;
33 -> 35 ;
36 [label="X[515] <= 0.078\ngini = 0.5\nsamples = 3\nvalue = [0, 0, 0, 0, 0, 2, 0, 0, 2]"] ;
32 -> 36 ;
37 [label="gini = 0.0\nsamples = 2\nvalue = [0, 0, 0, 0, 0, 0, 0, 0, 2]"] ;
36 -> 37 ;
38 [label="gini = 0.0\nsamples = 1\nvalue = [0, 0, 0, 0, 0, 2, 0, 0, 0]"] ;
36 -> 38 ;
39 [label="gini = 0.0\nsamples = 18\nvalue = [0, 0, 0, 0, 0, 0, 0, 29, 0]"] ;
31 -> 39 ;
40 [label="X[1060] <= 0.387\ngini = 0.773\nsamples = 98\nvalue = [1, 3, 39, 39, 42, 23, 7, 0, 0]"] ;
0 -> 40 [labeldistance=2.5, labelangle=-45, headlabel="False"] ;
41 [label="X[2665] <= 0.0\ngini = 0.642\nsamples = 49\nvalue = [1, 1, 11, 8, 42, 15, 0, 0, 0]"] ;
40 -> 41 ;
42 [label="X[1511] <= 0.132\ngini = 0.153\nsamples = 6\nvalue = [0, 1, 11, 0, 0, 0, 0, 0, 0]"] ;
41 -> 42 ;
43 [label="gini = 0.0\nsamples = 1\nvalue = [0, 1, 0, 0, 0, 0, 0, 0, 0]"] ;
42 -> 43 ;
44 [label="gini = 0.0\nsamples = 5\nvalue = [0, 0, 11, 0, 0, 0, 0, 0, 0]"] ;
42 -> 44 ;
45 [label="X[2296] <= 0.34\ngini = 0.528\nsamples = 43\nvalue = [1, 0, 0, 8, 42, 15, 0, 0, 0]"] ;
41 -> 45 ;
46 [label="X[2041] <= 0.088\ngini = 0.426\nsamples = 38\nvalue = [1, 0, 0, 8, 42, 6, 0, 0, 0]"] ;
45 -> 46 ;
47 [label="X[746] <= 0.105\ngini = 0.346\nsamples = 7\nvalue = [0, 0, 0, 7, 0, 2, 0, 0, 0]"] ;
46 -> 47 ;
48 [label="gini = 0.0\nsamples = 5\nvalue = [0, 0, 0, 7, 0, 0, 0, 0, 0]"] ;
47 -> 48 ;
49 [label="gini = 0.0\nsamples = 2\nvalue = [0, 0, 0, 0, 0, 2, 0, 0, 0]"] ;
47 -> 49 ;
50 [label="X[27] <= 0.351\ngini = 0.227\nsamples = 31\nvalue = [1, 0, 0, 1, 42, 4, 0, 0, 0]"] ;
46 -> 50 ;
51 [label="X[2849] <= 0.089\ngini = 0.045\nsamples = 28\nvalue = [1, 0, 0, 0, 42, 0, 0, 0, 0]"] ;
50 -> 51 ;
52 [label="gini = 0.0\nsamples = 1\nvalue = [1, 0, 0, 0, 0, 0, 0, 0, 0]"] ;
51 -> 52 ;
53 [label="gini = 0.0\nsamples = 27\nvalue = [0, 0, 0, 0, 42, 0, 0, 0, 0]"] ;
51 -> 53 ;
54 [label="X[534] <= 0.16\ngini = 0.32\nsamples = 3\nvalue = [0, 0, 0, 1, 0, 4, 0, 0, 0]"] ;
50 -> 54 ;
55 [label="gini = 0.0\nsamples = 1\nvalue = [0, 0, 0, 1, 0, 0, 0, 0, 0]"] ;
54 -> 55 ;
56 [label="gini = 0.0\nsamples = 2\nvalue = [0, 0, 0, 0, 0, 4, 0, 0, 0]"] ;
54 -> 56 ;
57 [label="gini = 0.0\nsamples = 5\nvalue = [0, 0, 0, 0, 0, 9, 0, 0, 0]"] ;
45 -> 57 ;
58 [label="X[1235] <= 0.001\ngini = 0.678\nsamples = 49\nvalue = [0, 2, 28, 31, 0, 8, 7, 0, 0]"] ;
40 -> 58 ;
59 [label="X[2894] <= 0.601\ngini = 0.555\nsamples = 27\nvalue = [0, 2, 28, 0, 0, 8, 7, 0, 0]"] ;
58 -> 59 ;
60 [label="X[226] <= 0.307\ngini = 0.304\nsamples = 21\nvalue = [0, 2, 28, 0, 0, 4, 0, 0, 0]"] ;
59 -> 60 ;
61 [label="X[3491] <= 0.44\ngini = 0.444\nsamples = 2\nvalue = [0, 2, 0, 0, 0, 4, 0, 0, 0]"] ;
60 -> 61 ;
62 [label="gini = 0.0\nsamples = 1\nvalue = [0, 0, 0, 0, 0, 4, 0, 0, 0]"] ;
61 -> 62 ;
63 [label="gini = 0.0\nsamples = 1\nvalue = [0, 2, 0, 0, 0, 0, 0, 0, 0]"] ;
61 -> 63 ;
64 [label="gini = 0.0\nsamples = 19\nvalue = [0, 0, 28, 0, 0, 0, 0, 0, 0]"] ;
60 -> 64 ;
65 [label="X[3785] <= 0.706\ngini = 0.463\nsamples = 6\nvalue = [0, 0, 0, 0, 0, 4, 7, 0, 0]"] ;
59 -> 65 ;
66 [label="gini = 0.0\nsamples = 2\nvalue = [0, 0, 0, 0, 0, 4, 0, 0, 0]"] ;
65 -> 66 ;
67 [label="gini = 0.0\nsamples = 4\nvalue = [0, 0, 0, 0, 0, 0, 7, 0, 0]"] ;
65 -> 67 ;
68 [label="gini = 0.0\nsamples = 22\nvalue = [0, 0, 0, 31, 0, 0, 0, 0, 0]"] ;
58 -> 68 ;
}
