digraph Tree {
node [shape=box] ;
0 [label="X[1839] <= 0.068\ngini = 0.885\nsamples = 362\nvalue = [68, 59, 48, 65, 73, 63, 44, 68, 83]"] ;
1 [label="X[1365] <= 0.001\ngini = 0.806\nsamples = 203\nvalue = [68, 57, 0, 0, 0, 19, 32, 66, 83]"] ;
0 -> 1 [labeldistance=2.5, labelangle=45, headlabel="True"] ;
2 [label="X[665] <= 0.004\ngini = 0.779\nsamples = 171\nvalue = [68, 57, 0, 0, 0, 19, 32, 13, 83]"] ;
1 -> 2 ;
3 [label="X[317] <= 0.0\ngini = 0.376\nsamples = 39\nvalue = [0, 49, 0, 0, 0, 0, 12, 3, 0]"] ;
2 -> 3 ;
4 [label="gini = 0.0\nsamples = 9\nvalue = [0, 0, 0, 0, 0, 0, 12, 0, 0]"] ;
3 -> 4 ;
5 [label="X[2864] <= 0.002\ngini = 0.109\nsamples = 30\nvalue = [0, 49, 0, 0, 0, 0, 0, 3, 0]"] ;
3 -> 5 ;
6 [label="gini = 0.0\nsamples = 1\nvalue = [0, 0, 0, 0, 0, 0, 0, 1, 0]"] ;
5 -> 6 ;
7 [label="X[2817] <= 0.004\ngini = 0.075\nsamples = 29\nvalue = [0, 49, 0, 0, 0, 0, 0, 2, 0]"] ;
5 -> 7 ;
8 [label="X[1886] <= 0.003\ngini = 0.5\nsamples = 3\nvalue = [0, 2, 0, 0, 0, 0, 0, 2, 0]"] ;
7 -> 8 ;
9 [label="gini = 0.0\nsamples = 2\nvalue = [0, 2, 0, 0, 0, 0, 0, 0, 0]"] ;
8 -> 9 ;
10 [label="gini = 0.0\nsamples = 1\nvalue = [0, 0, 0, 0, 0, 0, 0, 2, 0]"] ;
8 -> 10 ;
11 [label="gini = 0.0\nsamples = 26\nvalue = [0, 47, 0, 0, 0, 0, 0, 0, 0]"] ;
7 -> 11 ;
12 [label="X[3101] <= 0.04\ngini = 0.713\nsamples = 132\nvalue = [68, 8, 0, 0, 0, 19, 20, 10, 83]"] ;
2 -> 12 ;
13 [label="X[2554] <= 0.001\ngini = 0.545\nsamples = 72\nvalue = [3, 3, 0, 0, 0, 5, 20, 9, 72]"] ;
12 -> 13 ;
14 [label="gini = 0.0\nsamples = 13\nvalue = [0, 0, 0, 0, 0, 0, 20, 0, 0]"] ;
13 -> 14 ;
15 [label="X[997] <= 0.032\ngini = 0.373\nsamples = 59\nvalue = [3, 3, 0, 0, 0, 5, 0, 9, 72]"] ;
13 -> 15 ;
16 [label="X[265] <= 0.065\ngini = 0.196\nsamples = 48\nvalue = [3, 3, 0, 0, 0, 1, 0, 1, 68]"] ;
15 -> 16 ;
17 [label="X[2947] <= 0.008\ngini = 0.082\nsamples = 43\nvalue = [0, 2, 0, 0, 0, 0, 0, 1, 68]"] ;
16 -> 17 ;
18 [label="X[3626] <= 0.003\ngini = 0.444\nsamples = 2\nvalue = [0, 2, 0, 0, 0, 0, 0, 1, 0]"] ;
17 -> 18 ;
19 [label="gini = 0.0\nsamples = 1\nvalue = [0, 2, 0, 0, 0, 0, 0, 0, 0]"] ;
18 -> 19 ;
20 [label="gini = 0.0\nsamples = 1\nvalue = [0, 0, 0, 0, 0, 0, 0, 1, 0]"] ;
18 -> 20 ;
21 [label="gini = 0.0\nsamples = 41\nvalue = [0, 0, 0, 0, 0, 0, 0, 0, 68]"] ;
17 -> 21 ;
22 [label="X[2489] <= 0.012\ngini = 0.56\nsamples = 5\nvalue = [3, 1, 0, 0, 0, 1, 0, 0, 0]"] ;
16 -> 22 ;
23 [label="X[1018] <= 0.032\ngini = 0.5\nsamples = 2\nvalue = [0, 1, 0, 0, 0, 1, 0, 0, 0]"] ;
22 -> 23 ;
24 [label="gini = 0.0\nsamples = 1\nvalue = [0, 1, 0, 0, 0, 0, 0, 0, 0]"] ;
23 -> 24 ;
25 [label="gini = 0.0\nsamples = 1\nvalue = [0, 0, 0, 0, 0, 1, 0, 0, 0]"] ;
23 -> 25 ;
26 [label="gini = 0.0\nsamples = 3\nvalue = [3, 0, 0, 0, 0, 0, 0, 0, 0]"] ;
22 -> 26 ;
27 [label="X[1105] <= 0.0\ngini = 0.625\nsamples = 11\nvalue = [0, 0, 0, 0, 0, 4, 0, 8, 4]"] ;
15 -> 27 ;
28 [label="X[1565] <= 0.02\ngini = 0.5\nsamples = 6\nvalue = [0, 0, 0, 0, 0, 4, 0, 0, 4]"] ;
27 -> 28 ;
29 [label="gini = 0.0\nsamples = 3\nvalue = [0, 0, 0, 0, 0, 0, 0, 0, 4]"] ;
28 -> 29 ;
30 [label="gini = 0.0\nsamples = 3\nvalue = [0, 0, 0, 0, 0, 4, 0, 0, 0]"] ;
28 -> 30 ;
31 [label="gini = 0.0\nsamples = 5\nvalue = [0, 0, 0, 0, 0, 0, 0, 8, 0]"] ;
27 -> 31 ;
32 [label="X[47] <= 0.175\ngini = 0.504\nsamples = 60\nvalue = [65, 5, 0, 0, 0, 14, 0, 1, 11]"] ;
12 -> 32 ;
33 [label="X[3016] <= 0.031\ngini = 0.333\nsamples = 48\nvalue = [64, 5, 0, 0, 0, 4, 0, 1, 5]"] ;
32 -> 33 ;
34 [label="X[230] <= 0.03\ngini = 0.681\nsamples = 7\nvalue = [2, 5, 0, 0, 0, 4, 0, 0, 1]"] ;
33 -> 34 ;
35 [label="gini = 0.0\nsamples = 2\nvalue = [0, 5, 0, 0, 0, 0, 0, 0, 0]"] ;
34 -> 35 ;
36 [label="X[1363] <= 0.03\ngini = 0.571\nsamples = 5\nvalue = [2, 0, 0, 0, 0, 4, 0, 0, 1]"] ;
34 -> 36 ;
37 [label="X[1486] <= 0.023\ngini = 0.444\nsamples = 3\nvalue = [2, 0, 0, 0, 0, 0, 0, 0, 1]"] ;
36 -> 37 ;
38 [label="gini = 0.0\nsamples = 1\nvalue = [0, 0, 0, 0, 0, 0, 0, 0, 1]"] ;
37 -> 38 ;
39 [label="gini = 0.0\nsamples = 2\nvalue = [2, 0, 0, 0, 0, 0, 0, 0, 0]"] ;
37 -> 39 ;
40 [label="gini = 0.0\nsamples = 2\nvalue = [0, 0, 0, 0, 0, 4, 0, 0, 0]"] ;
36 -> 40 ;
41 [label="X[1385] <= 0.07\ngini = 0.14\nsamples = 41\nvalue = [62, 0, 0, 0, 0, 0, 0, 1, 4]"] ;
33 -> 41 ;
42 [label="X[5] <= 0.477\ngini = 0.061\nsamples = 39\nvalue = [62, 0, 0, 0, 0, 0, 0, 1, 1]"] ;
41 -> 42 ;
43 [label="X[2814] <= 0.008\ngini = 0.031\nsamples = 38\nvalue = [62, 0, 0, 0, 0, 0, 0, 1, 0]"] ;
42 -> 43 ;
44 [label="gini = 0.0\nsamples = 1\nvalue = [0, 0, 0, 0, 0, 0, 0, 1, 0]"] ;
43 -> 44 ;
45 [label="gini = 0.0\nsamples = 37\nvalue = [62, 0, 0, 0, 0, 0, 0, 0, 0]"] ;
43 -> 45 ;
46 [label="gini = 0.0\nsamples = 1\nvalue = [0, 0, 0, 0, 0, 0, 0, 0, 1]"] ;
42 -> 46 ;
47 [label="gini = 0.0\nsamples = 2\nvalue = [0, 0, 0, 0, 0, 0, 0, 0, 3]"] ;
41 -> 47 ;
48 [label="X[646] <= 0.029\ngini = 0.526\nsamples = 12\nvalue = [1, 0, 0, 0, 0, 10, 0, 0, 6]"] ;
32 -> 48 ;
49 [label="X[1810] <= 0.028\ngini = 0.406\nsamples = 5\nvalue = [1, 0, 0, 0, 0, 1, 0, 0, 6]"] ;
48 -> 49 ;
50 [label="X[2655] <= 0.023\ngini = 0.5\nsamples = 2\nvalue = [1, 0, 0, 0, 0, 1, 0, 0, 0]"] ;
49 -> 50 ;
51 [label="gini = 0.0\nsamples = 1\nvalue = [1, 0, 0, 0, 0, 0, 0, 0, 0]"] ;
50 -> 51 ;
52 [label="gini = 0.0\nsamples = 1\nvalue = [0, 0, 0, 0, 0, 1, 0, 0, 0]"] ;
50 -> 52 ;
53 [label="gini = 0.0\nsamples = 3\nvalue = [0, 0, 0, 0, 0, 0, 0, 0, 6]"] ;
49 -> 53 ;
54 [label="gini = 0.0\nsamples = 7\nvalue = [0, 0, 0, 0, 0, 9, 0, 0, 0]"] ;
48 -> 54 ;
55 [label="gini = 0.0\nsamples = 32\nvalue = [0, 0, 0, 0, 0, 0, 0, 53, 0]"] ;
1 -> 55 ;
56 [label="X[753] <= 0.116\ngini = 0.77\nsamples = 159\nvalue = [0, 2, 48, 65, 73, 44, 12, 2, 0]"] ;
0 -> 56 [labeldistance=2.5, labelangle=-45, headlabel="False"] ;
57 [label="X[2014] <= 0.091\ngini = 0.303\nsamples = 44\nvalue = [0, 0, 0, 4, 53, 5, 0, 2, 0]"] ;
56 -> 57 ;
58 [label="X[2513] <= 0.073\ngini = 0.593\nsamples = 7\nvalue = [0, 0, 0, 2, 0, 5, 0, 2, 0]"] ;
57 -> 58 ;
59 [label="X[3510] <= 0.001\ngini = 0.5\nsamples = 4\nvalue = [0, 0, 0, 2, 0, 0, 0, 2, 0]"] ;
58 -> 59 ;
60 [label="gini = 0.0\nsamples = 2\nvalue = [0, 0, 0, 0, 0, 0, 0, 2, 0]"] ;
59 -> 60 ;
61 [label="gini = 0.0\nsamples = 2\nvalue = [0, 0, 0, 2, 0, 0, 0, 0, 0]"] ;
59 -> 61 ;
62 [label="gini = 0.0\nsamples = 3\nvalue = [0, 0, 0, 0, 0, 5, 0, 0, 0]"] ;
58 -> 62 ;
63 [label="X[1314] <= 0.121\ngini = 0.07\nsamples = 37\nvalue = [0, 0, 0, 2, 53, 0, 0, 0, 0]"] ;
57 -> 63 ;
64 [label="gini = 0.0\nsamples = 2\nvalue = [0, 0, 0, 2, 0, 0, 0, 0, 0]"] ;
63 -> 64 ;
65 [label="gini = 0.0\nsamples = 35\nvalue = [0, 0, 0, 0, 53, 0, 0, 0, 0]"] ;
63 -> 65 ;
66 [label="X[3510] <= 0.001\ngini = 0.756\nsamples = 115\nvalue = [0, 2, 48, 61, 20, 39, 12, 0, 0]"] ;
56 -> 66 ;
67 [label="X[1455] <= 0.261\ngini = 0.483\nsamples = 45\nvalue = [0, 2, 48, 2, 0, 21, 0, 0, 0]"] ;
66 -> 67 ;
68 [label="X[3433] <= 0.104\ngini = 0.355\nsamples = 13\nvalue = [0, 2, 0, 2, 0, 15, 0, 0, 0]"] ;
67 -> 68 ;
69 [label="X[3167] <= 0.034\ngini = 0.5\nsamples = 3\nvalue = [0, 2, 0, 2, 0, 0, 0, 0, 0]"] ;
68 -> 69 ;
70 [label="gini = 0.0\nsamples = 1\nvalue = [0, 2, 0, 0, 0, 0, 0, 0, 0]"] ;
69 -> 70 ;
71 [label="gini = 0.0\nsamples = 2\nvalue = [0, 0, 0, 2, 0, 0, 0, 0, 0]"] ;
69 -> 71 ;
72 [label="gini = 0.0\nsamples = 10\nvalue = [0, 0, 0, 0, 0, 15, 0, 0, 0]"] ;
68 -> 72 ;
73 [label="X[2340] <= 0.001\ngini = 0.198\nsamples = 32\nvalue = [0, 0, 48, 0, 0, 6, 0, 0, 0]"] ;
67 -> 73 ;
74 [label="X[2291] <= 0.457\ngini = 0.041\nsamples = 29\nvalue = [0, 0, 47, 0, 0, 1, 0, 0, 0]"] ;
73 -> 74 ;
75 [label="gini = 0.0\nsamples = 22\nvalue = [0, 0, 38, 0, 0, 0, 0, 0, 0]"] ;
74 -> 75 ;
76 [label="X[3516] <= 0.458\ngini = 0.18\nsamples = 7\nvalue = [0, 0, 9, 0, 0, 1, 0, 0, 0]"] ;
74 -> 76 ;
77 [label="gini = 0.0\nsamples = 1\nvalue = [0, 0, 0, 0, 0, 1, 0, 0, 0]"] ;
76 -> 77 ;
78 [label="gini = 0.0\nsamples = 6\nvalue = [0, 0, 9, 0, 0, 0, 0, 0, 0]"] ;
76 -> 78 ;
79 [label="X[2436] <= 0.496\ngini = 0.278\nsamples = 3\nvalue = [0, 0, 1, 0, 0, 5, 0, 0, 0]"] ;
73 -> 79 ;
80 [label="gini = 0.0\nsamples = 2\nvalue = [0, 0, 0, 0, 0, 5, 0, 0, 0]"] ;
79 -> 80 ;
81 [label="gini = 0.0\nsamples = 1\nvalue = [0, 0, 1, 0, 0, 0, 0, 0, 0]"] ;
79 -> 81 ;
82 [label="X[3441] <= 0.782\ngini = 0.634\nsamples = 70\nvalue = [0, 0, 0, 59, 20, 18, 12, 0, 0]"] ;
66 -> 82 ;
83 [label="X[3835] <= 0.002\ngini = 0.553\nsamples = 61\nvalue = [0, 0, 0, 59, 20, 18, 0, 0, 0]"] ;
82 -> 83 ;
84 [label="X[2795] <= 0.002\ngini = 0.653\nsamples = 30\nvalue = [0, 0, 0, 16, 20, 12, 0, 0, 0]"] ;
83 -> 84 ;
85 [label="X[3296] <= 0.166\ngini = 0.49\nsamples = 17\nvalue = [0, 0, 0, 16, 0, 12, 0, 0, 0]"] ;
84 -> 85 ;
86 [label="gini = 0.0\nsamples = 9\nvalue = [0, 0, 0, 13, 0, 0, 0, 0, 0]"] ;
85 -> 86 ;
87 [label="X[2045] <= 0.53\ngini = 0.32\nsamples = 8\nvalue = [0, 0, 0, 3, 0, 12, 0, 0, 0]"] ;
85 -> 87 ;
88 [label="gini = 0.0\nsamples = 6\nvalue = [0, 0, 0, 0, 0, 12, 0, 0, 0]"] ;
87 -> 88 ;
89 [label="gini = 0.0\nsamples = 2\nvalue = [0, 0, 0, 3, 0, 0, 0, 0, 0]"] ;
87 -> 89 ;
90 [label="gini = 0.0\nsamples = 13\nvalue = [0, 0, 0, 0, 20, 0, 0, 0, 0]"] ;
84 -> 90 ;
91 [label="X[3082] <= 0.343\ngini = 0.215\nsamples = 31\nvalue = [0, 0, 0, 43, 0, 6, 0, 0, 0]"] ;
83 -> 91 ;
92 [label="X[3625] <= 0.258\ngini = 0.49\nsamples = 8\nvalue = [0, 0, 0, 8, 0, 6, 0, 0, 0]"] ;
91 -> 92 ;
93 [label="gini = 0.0\nsamples = 5\nvalue = [0, 0, 0, 8, 0, 0, 0, 0, 0]"] ;
92 -> 93 ;
94 [label="gini = 0.0\nsamples = 3\nvalue = [0, 0, 0, 0, 0, 6, 0, 0, 0]"] ;
92 -> 94 ;
95 [label="gini = 0.0\nsamples = 23\nvalue = [0, 0, 0, 35, 0, 0, 0, 0, 0]"] ;
91 -> 95 ;
96 [label="gini = 0.0\nsamples = 9\nvalue = [0, 0, 0, 0, 0, 0, 12, 0, 0]"] ;
82 -> 96 ;
}
