digraph Tree {
node [shape=box] ;
0 [label="X[3962] <= 0.066\ngini = 0.886\nsamples = 224\nvalue = [34, 33, 31, 44, 44, 43, 32, 32, 49]"] ;
1 [label="X[3795] <= 0.0\ngini = 0.819\nsamples = 122\nvalue = [34, 33, 0, 0, 0, 20, 23, 32, 49]"] ;
0 -> 1 [labeldistance=2.5, labelangle=45, headlabel="True"] ;
2 [label="gini = 0.0\nsamples = 14\nvalue = [0, 0, 0, 0, 0, 0, 23, 0, 0]"] ;
1 -> 2 ;
3 [label="X[2752] <= 0.11\ngini = 0.785\nsamples = 108\nvalue = [34, 33, 0, 0, 0, 20, 0, 32, 49]"] ;
1 -> 3 ;
4 [label="X[4053] <= 0.046\ngini = 0.723\nsamples = 64\nvalue = [32, 31, 0, 0, 0, 5, 0, 26, 5]"] ;
3 -> 4 ;
5 [label="X[455] <= 0.0\ngini = 0.209\nsamples = 23\nvalue = [2, 31, 0, 0, 0, 0, 0, 2, 0]"] ;
4 -> 5 ;
6 [label="X[3951] <= 0.002\ngini = 0.114\nsamples = 21\nvalue = [2, 31, 0, 0, 0, 0, 0, 0, 0]"] ;
5 -> 6 ;
7 [label="X[1165] <= 0.006\ngini = 0.5\nsamples = 3\nvalue = [2, 2, 0, 0, 0, 0, 0, 0, 0]"] ;
6 -> 7 ;
8 [label="gini = 0.0\nsamples = 2\nvalue = [0, 2, 0, 0, 0, 0, 0, 0, 0]"] ;
7 -> 8 ;
9 [label="gini = 0.0\nsamples = 1\nvalue = [2, 0, 0, 0, 0, 0, 0, 0, 0]"] ;
7 -> 9 ;
10 [label="gini = 0.0\nsamples = 18\nvalue = [0, 29, 0, 0, 0, 0, 0, 0, 0]"] ;
6 -> 10 ;
11 [label="gini = 0.0\nsamples = 2\nvalue = [0, 0, 0, 0, 0, 0, 0, 2, 0]"] ;
5 -> 11 ;
12 [label="X[2824] <= 0.11\ngini = 0.627\nsamples = 41\nvalue = [30, 0, 0, 0, 0, 5, 0, 24, 5]"] ;
4 -> 12 ;
13 [label="X[779] <= 0.032\ngini = 0.434\nsamples = 24\nvalue = [30, 0, 0, 0, 0, 5, 0, 1, 5]"] ;
12 -> 13 ;
14 [label="X[1705] <= 0.016\ngini = 0.58\nsamples = 6\nvalue = [0, 0, 0, 0, 0, 4, 0, 1, 5]"] ;
13 -> 14 ;
15 [label="X[1957] <= 0.012\ngini = 0.32\nsamples = 3\nvalue = [0, 0, 0, 0, 0, 4, 0, 1, 0]"] ;
14 -> 15 ;
16 [label="gini = 0.0\nsamples = 1\nvalue = [0, 0, 0, 0, 0, 0, 0, 1, 0]"] ;
15 -> 16 ;
17 [label="gini = 0.0\nsamples = 2\nvalue = [0, 0, 0, 0, 0, 4, 0, 0, 0]"] ;
15 -> 17 ;
18 [label="gini = 0.0\nsamples = 3\nvalue = [0, 0, 0, 0, 0, 0, 0, 0, 5]"] ;
14 -> 18 ;
19 [label="X[3004] <= 0.066\ngini = 0.062\nsamples = 18\nvalue = [30, 0, 0, 0, 0, 1, 0, 0, 0]"] ;
13 -> 19 ;
20 [label="gini = 0.0\nsamples = 17\nvalue = [30, 0, 0, 0, 0, 0, 0, 0, 0]"] ;
19 -> 20 ;
21 [label="gini = 0.0\nsamples = 1\nvalue = [0, 0, 0, 0, 0, 1, 0, 0, 0]"] ;
19 -> 21 ;
22 [label="gini = 0.0\nsamples = 17\nvalue = [0, 0, 0, 0, 0, 0, 0, 23, 0]"] ;
12 -> 22 ;
23 [label="X[3246] <= 0.023\ngini = 0.537\nsamples = 44\nvalue = [2, 2, 0, 0, 0, 15, 0, 6, 44]"] ;
3 -> 23 ;
24 [label="X[258] <= 0.07\ngini = 0.283\nsamples = 30\nvalue = [2, 0, 0, 0, 0, 0, 0, 6, 41]"] ;
23 -> 24 ;
25 [label="gini = 0.0\nsamples = 25\nvalue = [0, 0, 0, 0, 0, 0, 0, 0, 40]"] ;
24 -> 25 ;
26 [label="X[1709] <= 0.01\ngini = 0.494\nsamples = 5\nvalue = [2, 0, 0, 0, 0, 0, 0, 6, 1]"] ;
24 -> 26 ;
27 [label="gini = 0.0\nsamples = 2\nvalue = [0, 0, 0, 0, 0, 0, 0, 6, 0]"] ;
26 -> 27 ;
28 [label="X[3312] <= 0.062\ngini = 0.444\nsamples = 3\nvalue = [2, 0, 0, 0, 0, 0, 0, 0, 1]"] ;
26 -> 28 ;
29 [label="gini = 0.0\nsamples = 2\nvalue = [2, 0, 0, 0, 0, 0, 0, 0, 0]"] ;
28 -> 29 ;
30 [label="gini = 0.0\nsamples = 1\nvalue = [0, 0, 0, 0, 0, 0, 0, 0, 1]"] ;
28 -> 30 ;
31 [label="X[13] <= 0.257\ngini = 0.405\nsamples = 14\nvalue = [0, 2, 0, 0, 0, 15, 0, 0, 3]"] ;
23 -> 31 ;
32 [label="X[3282] <= 0.06\ngini = 0.48\nsamples = 5\nvalue = [0, 2, 0, 0, 0, 0, 0, 0, 3]"] ;
31 -> 32 ;
33 [label="gini = 0.0\nsamples = 3\nvalue = [0, 0, 0, 0, 0, 0, 0, 0, 3]"] ;
32 -> 33 ;
34 [label="gini = 0.0\nsamples = 2\nvalue = [0, 2, 0, 0, 0, 0, 0, 0, 0]"] ;
32 -> 34 ;
35 [label="gini = 0.0\nsamples = 9\nvalue = [0, 0, 0, 0, 0, 15, 0, 0, 0]"] ;
31 -> 35 ;
36 [label="X[1084] <= 0.132\ngini = 0.761\nsamples = 102\nvalue = [0, 0, 31, 44, 44, 23, 9, 0, 0]"] ;
0 -> 36 [labeldistance=2.5, labelangle=-45, headlabel="False"] ;
37 [label="X[834] <= 0.105\ngini = 0.111\nsamples = 22\nvalue = [0, 0, 0, 2, 32, 0, 0, 0, 0]"] ;
36 -> 37 ;
38 [label="gini = 0.0\nsamples = 2\nvalue = [0, 0, 0, 2, 0, 0, 0, 0, 0]"] ;
37 -> 38 ;
39 [label="gini = 0.0\nsamples = 20\nvalue = [0, 0, 0, 0, 32, 0, 0, 0, 0]"] ;
37 -> 39 ;
40 [label="X[3887] <= 0.727\ngini = 0.746\nsamples = 80\nvalue = [0, 0, 31, 42, 12, 23, 9, 0, 0]"] ;
36 -> 40 ;
41 [label="X[390] <= 0.002\ngini = 0.626\nsamples = 57\nvalue = [0, 0, 4, 42, 12, 23, 0, 0, 0]"] ;
40 -> 41 ;
42 [label="X[2537] <= 0.127\ngini = 0.687\nsamples = 38\nvalue = [0, 0, 4, 15, 12, 23, 0, 0, 0]"] ;
41 -> 42 ;
43 [label="gini = 0.0\nsamples = 8\nvalue = [0, 0, 0, 10, 0, 0, 0, 0, 0]"] ;
42 -> 43 ;
44 [label="X[303] <= 0.354\ngini = 0.631\nsamples = 30\nvalue = [0, 0, 4, 5, 12, 23, 0, 0, 0]"] ;
42 -> 44 ;
45 [label="X[1633] <= 0.257\ngini = 0.406\nsamples = 17\nvalue = [0, 0, 4, 3, 0, 21, 0, 0, 0]"] ;
44 -> 45 ;
46 [label="gini = 0.0\nsamples = 9\nvalue = [0, 0, 0, 0, 0, 18, 0, 0, 0]"] ;
45 -> 46 ;
47 [label="X[3294] <= 0.348\ngini = 0.66\nsamples = 8\nvalue = [0, 0, 4, 3, 0, 3, 0, 0, 0]"] ;
45 -> 47 ;
48 [label="gini = 0.0\nsamples = 4\nvalue = [0, 0, 4, 0, 0, 0, 0, 0, 0]"] ;
47 -> 48 ;
49 [label="X[2167] <= 0.338\ngini = 0.5\nsamples = 4\nvalue = [0, 0, 0, 3, 0, 3, 0, 0, 0]"] ;
47 -> 49 ;
50 [label="gini = 0.0\nsamples = 2\nvalue = [0, 0, 0, 3, 0, 0, 0, 0, 0]"] ;
49 -> 50 ;
51 [label="gini = 0.0\nsamples = 2\nvalue = [0, 0, 0, 0, 0, 3, 0, 0, 0]"] ;
49 -> 51 ;
52 [label="X[202] <= 0.372\ngini = 0.406\nsamples = 13\nvalue = [0, 0, 0, 2, 12, 2, 0, 0, 0]"] ;
44 -> 52 ;
53 [label="gini = 0.0\nsamples = 9\nvalue = [0, 0, 0, 0, 12, 0, 0, 0, 0]"] ;
52 -> 53 ;
54 [label="X[1415] <= 0.482\ngini = 0.5\nsamples = 4\nvalue = [0, 0, 0, 2, 0, 2, 0, 0, 0]"] ;
52 -> 54 ;
55 [label="gini = 0.0\nsamples = 2\nvalue = [0, 0, 0, 0, 0, 2, 0, 0, 0]"] ;
54 -> 55 ;
56 [label="gini = 0.0\nsamples = 2\nvalue = [0, 0, 0, 2, 0, 0, 0, 0, 0]"] ;
54 -> 56 ;
57 [label="gini = 0.0\nsamples = 19\nvalue = [0, 0, 0, 27, 0, 0, 0, 0, 0]"] ;
41 -> 57 ;
58 [label="X[1693] <= 0.687\ngini = 0.375\nsamples = 23\nvalue = [0, 0, 27, 0, 0, 0, 9, 0, 0]"] ;
40 -> 58 ;
59 [label="gini = 0.0\nsamples = 17\nvalue = [0, 0, 27, 0, 0, 0, 0, 0, 0]"] ;
58 -> 59 ;
60 [label="gini = 0.0\nsamples = 6\nvalue = [0, 0, 0, 0, 0, 0, 9, 0, 0]"] ;
58 -> 60 ;
}
