digraph Tree {
node [shape=box] ;
0 [label="X[3750] <= 0.0\ngini = 0.881\nsamples = 210\nvalue = [42, 26, 29, 39, 39, 25, 41, 42, 59]"] ;
1 [label="gini = 0.0\nsamples = 19\nvalue = [0, 0, 0, 0, 0, 0, 35, 0, 0]"] ;
0 -> 1 [labeldistance=2.5, labelangle=45, headlabel="True"] ;
2 [label="X[3004] <= 0.082\ngini = 0.87\nsamples = 191\nvalue = [42, 26, 29, 39, 39, 25, 6, 42, 59]"] ;
0 -> 2 [labeldistance=2.5, labelangle=-45, headlabel="False"] ;
3 [label="X[50] <= 0.115\ngini = 0.757\nsamples = 111\nvalue = [40, 26, 0, 1, 0, 9, 0, 42, 59]"] ;
2 -> 3 ;
4 [label="X[1782] <= 0.061\ngini = 0.677\nsamples = 62\nvalue = [36, 21, 0, 0, 0, 2, 0, 41, 3]"] ;
3 -> 4 ;
5 [label="X[2416] <= 0.016\ngini = 0.593\nsamples = 41\nvalue = [36, 18, 0, 0, 0, 1, 0, 6, 3]"] ;
4 -> 5 ;
6 [label="X[3754] <= 0.006\ngini = 0.375\nsamples = 17\nvalue = [0, 18, 0, 0, 0, 0, 0, 6, 0]"] ;
5 -> 6 ;
7 [label="gini = 0.0\nsamples = 14\nvalue = [0, 18, 0, 0, 0, 0, 0, 0, 0]"] ;
6 -> 7 ;
8 [label="gini = 0.0\nsamples = 3\nvalue = [0, 0, 0, 0, 0, 0, 0, 6, 0]"] ;
6 -> 8 ;
9 [label="X[431] <= 0.033\ngini = 0.184\nsamples = 24\nvalue = [36, 0, 0, 0, 0, 1, 0, 0, 3]"] ;
5 -> 9 ;
10 [label="X[2436] <= 0.024\ngini = 0.56\nsamples = 5\nvalue = [1, 0, 0, 0, 0, 1, 0, 0, 3]"] ;
9 -> 10 ;
11 [label="X[2027] <= 0.015\ngini = 0.5\nsamples = 2\nvalue = [1, 0, 0, 0, 0, 1, 0, 0, 0]"] ;
10 -> 11 ;
12 [label="gini = 0.0\nsamples = 1\nvalue = [0, 0, 0, 0, 0, 1, 0, 0, 0]"] ;
11 -> 12 ;
13 [label="gini = 0.0\nsamples = 1\nvalue = [1, 0, 0, 0, 0, 0, 0, 0, 0]"] ;
11 -> 13 ;
14 [label="gini = 0.0\nsamples = 3\nvalue = [0, 0, 0, 0, 0, 0, 0, 0, 3]"] ;
10 -> 14 ;
15 [label="gini = 0.0\nsamples = 19\nvalue = [35, 0, 0, 0, 0, 0, 0, 0, 0]"] ;
9 -> 15 ;
16 [label="X[1334] <= 0.086\ngini = 0.188\nsamples = 21\nvalue = [0, 3, 0, 0, 0, 1, 0, 35, 0]"] ;
4 -> 16 ;
17 [label="gini = 0.0\nsamples = 18\nvalue = [0, 0, 0, 0, 0, 0, 0, 35, 0]"] ;
16 -> 17 ;
18 [label="X[3012] <= 0.047\ngini = 0.375\nsamples = 3\nvalue = [0, 3, 0, 0, 0, 1, 0, 0, 0]"] ;
16 -> 18 ;
19 [label="gini = 0.0\nsamples = 1\nvalue = [0, 0, 0, 0, 0, 1, 0, 0, 0]"] ;
18 -> 19 ;
20 [label="gini = 0.0\nsamples = 2\nvalue = [0, 3, 0, 0, 0, 0, 0, 0, 0]"] ;
18 -> 20 ;
21 [label="X[2178] <= 0.053\ngini = 0.411\nsamples = 49\nvalue = [4, 5, 0, 1, 0, 7, 0, 1, 56]"] ;
3 -> 21 ;
22 [label="X[2431] <= 0.094\ngini = 0.067\nsamples = 37\nvalue = [0, 0, 0, 0, 0, 1, 0, 1, 56]"] ;
21 -> 22 ;
23 [label="X[3531] <= 0.005\ngini = 0.036\nsamples = 35\nvalue = [0, 0, 0, 0, 0, 0, 0, 1, 54]"] ;
22 -> 23 ;
24 [label="X[3561] <= 0.003\ngini = 0.245\nsamples = 4\nvalue = [0, 0, 0, 0, 0, 0, 0, 1, 6]"] ;
23 -> 24 ;
25 [label="gini = 0.0\nsamples = 3\nvalue = [0, 0, 0, 0, 0, 0, 0, 0, 6]"] ;
24 -> 25 ;
26 [label="gini = 0.0\nsamples = 1\nvalue = [0, 0, 0, 0, 0, 0, 0, 1, 0]"] ;
24 -> 26 ;
27 [label="gini = 0.0\nsamples = 31\nvalue = [0, 0, 0, 0, 0, 0, 0, 0, 48]"] ;
23 -> 27 ;
28 [label="X[2745] <= 0.043\ngini = 0.444\nsamples = 2\nvalue = [0, 0, 0, 0, 0, 1, 0, 0, 2]"] ;
22 -> 28 ;
29 [label="gini = 0.0\nsamples = 1\nvalue = [0, 0, 0, 0, 0, 1, 0, 0, 0]"] ;
28 -> 29 ;
30 [label="gini = 0.0\nsamples = 1\nvalue = [0, 0, 0, 0, 0, 0, 0, 0, 2]"] ;
28 -> 30 ;
31 [label="X[1739] <= 0.055\ngini = 0.695\nsamples = 12\nvalue = [4, 5, 0, 1, 0, 6, 0, 0, 0]"] ;
21 -> 31 ;
32 [label="X[3495] <= 0.012\ngini = 0.494\nsamples = 7\nvalue = [4, 5, 0, 0, 0, 0, 0, 0, 0]"] ;
31 -> 32 ;
33 [label="gini = 0.0\nsamples = 4\nvalue = [0, 5, 0, 0, 0, 0, 0, 0, 0]"] ;
32 -> 33 ;
34 [label="gini = 0.0\nsamples = 3\nvalue = [4, 0, 0, 0, 0, 0, 0, 0, 0]"] ;
32 -> 34 ;
35 [label="X[630] <= 0.167\ngini = 0.245\nsamples = 5\nvalue = [0, 0, 0, 1, 0, 6, 0, 0, 0]"] ;
31 -> 35 ;
36 [label="gini = 0.0\nsamples = 4\nvalue = [0, 0, 0, 0, 0, 6, 0, 0, 0]"] ;
35 -> 36 ;
37 [label="gini = 0.0\nsamples = 1\nvalue = [0, 0, 0, 1, 0, 0, 0, 0, 0]"] ;
35 -> 37 ;
38 [label="X[2879] <= 0.145\ngini = 0.757\nsamples = 80\nvalue = [2, 0, 29, 38, 39, 16, 6, 0, 0]"] ;
2 -> 38 ;
39 [label="X[1365] <= 0.001\ngini = 0.121\nsamples = 20\nvalue = [2, 0, 0, 0, 29, 0, 0, 0, 0]"] ;
38 -> 39 ;
40 [label="gini = 0.0\nsamples = 19\nvalue = [0, 0, 0, 0, 29, 0, 0, 0, 0]"] ;
39 -> 40 ;
41 [label="gini = 0.0\nsamples = 1\nvalue = [2, 0, 0, 0, 0, 0, 0, 0, 0]"] ;
39 -> 41 ;
42 [label="X[496] <= 0.522\ngini = 0.727\nsamples = 60\nvalue = [0, 0, 29, 38, 10, 16, 6, 0, 0]"] ;
38 -> 42 ;
43 [label="X[715] <= 0.002\ngini = 0.651\nsamples = 37\nvalue = [0, 0, 5, 31, 10, 16, 0, 0, 0]"] ;
42 -> 43 ;
44 [label="X[322] <= 0.365\ngini = 0.713\nsamples = 22\nvalue = [0, 0, 5, 8, 10, 15, 0, 0, 0]"] ;
43 -> 44 ;
45 [label="X[1569] <= 0.144\ngini = 0.609\nsamples = 16\nvalue = [0, 0, 5, 8, 0, 14, 0, 0, 0]"] ;
44 -> 45 ;
46 [label="gini = 0.0\nsamples = 5\nvalue = [0, 0, 0, 7, 0, 0, 0, 0, 0]"] ;
45 -> 46 ;
47 [label="X[3671] <= 0.264\ngini = 0.445\nsamples = 11\nvalue = [0, 0, 5, 1, 0, 14, 0, 0, 0]"] ;
45 -> 47 ;
48 [label="gini = 0.0\nsamples = 7\nvalue = [0, 0, 0, 0, 0, 12, 0, 0, 0]"] ;
47 -> 48 ;
49 [label="X[448] <= 0.468\ngini = 0.531\nsamples = 4\nvalue = [0, 0, 5, 1, 0, 2, 0, 0, 0]"] ;
47 -> 49 ;
50 [label="gini = 0.0\nsamples = 2\nvalue = [0, 0, 5, 0, 0, 0, 0, 0, 0]"] ;
49 -> 50 ;
51 [label="X[1983] <= 0.326\ngini = 0.444\nsamples = 2\nvalue = [0, 0, 0, 1, 0, 2, 0, 0, 0]"] ;
49 -> 51 ;
52 [label="gini = 0.0\nsamples = 1\nvalue = [0, 0, 0, 1, 0, 0, 0, 0, 0]"] ;
51 -> 52 ;
53 [label="gini = 0.0\nsamples = 1\nvalue = [0, 0, 0, 0, 0, 2, 0, 0, 0]"] ;
51 -> 53 ;
54 [label="X[2474] <= 0.396\ngini = 0.165\nsamples = 6\nvalue = [0, 0, 0, 0, 10, 1, 0, 0, 0]"] ;
44 -> 54 ;
55 [label="gini = 0.0\nsamples = 5\nvalue = [0, 0, 0, 0, 10, 0, 0, 0, 0]"] ;
54 -> 55 ;
56 [label="gini = 0.0\nsamples = 1\nvalue = [0, 0, 0, 0, 0, 1, 0, 0, 0]"] ;
54 -> 56 ;
57 [label="X[488] <= 0.312\ngini = 0.08\nsamples = 15\nvalue = [0, 0, 0, 23, 0, 1, 0, 0, 0]"] ;
43 -> 57 ;
58 [label="X[2733] <= 0.275\ngini = 0.444\nsamples = 2\nvalue = [0, 0, 0, 2, 0, 1, 0, 0, 0]"] ;
57 -> 58 ;
59 [label="gini = 0.0\nsamples = 1\nvalue = [0, 0, 0, 2, 0, 0, 0, 0, 0]"] ;
58 -> 59 ;
60 [label="gini = 0.0\nsamples = 1\nvalue = [0, 0, 0, 0, 0, 1, 0, 0, 0]"] ;
58 -> 60 ;
61 [label="gini = 0.0\nsamples = 13\nvalue = [0, 0, 0, 21, 0, 0, 0, 0, 0]"] ;
57 -> 61 ;
62 [label="X[2686] <= 0.621\ngini = 0.517\nsamples = 23\nvalue = [0, 0, 24, 7, 0, 0, 6, 0, 0]"] ;
42 -> 62 ;
63 [label="gini = 0.0\nsamples = 16\nvalue = [0, 0, 24, 0, 0, 0, 0, 0, 0]"] ;
62 -> 63 ;
64 [label="X[2172] <= 0.748\ngini = 0.497\nsamples = 7\nvalue = [0, 0, 0, 7, 0, 0, 6, 0, 0]"] ;
62 -> 64 ;
65 [label="gini = 0.0\nsamples = 4\nvalue = [0, 0, 0, 7, 0, 0, 0, 0, 0]"] ;
64 -> 65 ;
66 [label="gini = 0.0\nsamples = 3\nvalue = [0, 0, 0, 0, 0, 0, 6, 0, 0]"] ;
64 -> 66 ;
}
